a -0.134524701302 -0.309973157959 -0.170531444939 -0.567044009126 -0.378811322004 -0.231976319077 0.305826280607 -0.167676023677 -0.427021733277 -0.184109506212 
b -0.286141638445 -0.294767448319 -0.496846648723 -0.285843655922 -0.0246886361875 0.0913598731945 -0.378923986104 -0.546029448293 -0.224694505563 -0.0386859731188 
c -0.441977794096 -0.283428702882 -0.114238104279 -0.350650550739 -0.0114794382636 -0.208848365873 -0.428353853967 0.498249741648 0.259596566926 -0.213161962962 
d 0.0623711081962 -0.540809099863 0.472759820488 -0.425811622223 -0.120842955126 -0.0958170046399 -0.340656126608 -0.187912297563 -0.110563860517 -0.333844369841 
e 0.0684637910964 -0.348710925762 -0.122678568963 -0.470571889654 0.166382631929 0.226587666601 0.140961258077 -0.22793458825 -0.0364590423093 -0.696453013145 
f -0.0239444055661 0.0415847794112 -0.281796690758 -0.837305376871 0.362427883677 -0.218857908185 -0.154307263263 -0.0362542110143 0.0926795466793 0.065117969701 
g 0.25920353524 -0.558656066635 -0.301441305323 -0.453558834909 -0.0120398953028 -0.0778794399724 -0.521295527851 0.151210743379 -0.0798279649039 0.130146312862 
h 0.0501762788068 -0.341962221987 -0.301158011064 0.0786532222614 0.673675611138 -0.147662030032 -0.232758399651 -0.0888566639975 -0.488073787565 -0.0879249519214 
i -0.601701769298 -0.529032473489 0.0522039767666 -0.0300370993073 0.246842515556 -0.361344645613 0.0961675296123 0.0801857690094 -0.356175527779 -0.142870577798 
j -0.157573639398 0.170895393451 -0.230469116755 -0.280684515708 0.234920027117 -0.241555633407 -0.115886706416 -0.257989763973 -0.517316431425 -0.59407425554 
null -0.21677802  0.15193529  0.21476768 -0.24774788  0.06141805  0.67870706 -0.07554987  0.31164247 -0.47380757  0.17515966
