a -0.00559737297825 -0.0398639885338 -0.148249606894 -0.129144512699 0.0539842328934 -0.0300090675294 -0.311099553861 -0.402601600607 -0.338399598021 -0.400651597453 -0.249600403748 -0.396517097094 -0.0694509667728 -0.0835884896414 -0.297869152713 -0.162097097648 -0.0784666459134 -0.232001008191 -0.00135562244599 -0.125219822806 
b -0.248008869511 -0.32682391423 -0.151143813642 -0.269563042887 -0.375374439464 0.110266688552 -0.0912941530615 -0.0564177270028 -0.0593619384093 0.216828977035 -0.240321166664 0.000358003806706 -0.0613607411494 -0.227756242104 -0.290366324358 -0.222771750119 -0.0190969690064 -0.404680677851 -0.329512822389 -0.0317169589725 
c -0.281292898581 0.0450568042959 -0.329491310188 -0.0673800244506 -0.0757237695603 -0.0337834087458 0.222690211377 -0.379799612102 -0.206556325403 0.0727021743587 -0.285957885407 -0.0909324008853 -0.471850835554 -0.193596953287 0.0924160989775 -0.109530406456 -0.0720953389355 -0.338366399233 -0.201959087348 -0.160922688711 
d -0.0794794309557 -0.239988385464 0.28785696613 -0.198583980924 -0.16797503116 -0.106261326518 -0.111743247227 0.129292877348 -0.0443754933065 -0.340150373581 -0.103426818028 -0.0939410371414 -0.437253337685 -0.280681824178 -0.455532643259 -0.194196573394 -0.215310387457 -0.000272066040946 -0.197264952221 -0.0861419291286 
e -0.152506765909 -0.0860097983995 0.0229952386664 -0.413319327163 0.0870141916595 -0.262085303859 -0.380527037294 -0.250392939573 -0.136743158714 -0.210631233877 -0.35423646868 0.0545699892252 -0.166606607169 -0.21724029487 0.342436764657 -0.0414576735519 -0.259386476168 -0.141565779787 -0.144586626691 -0.143313884087 
f -0.350207974934 -0.307276355811 -0.211216858022 0.0819121876745 -0.136146897145 -0.00472174021638 -0.0188704590244 0.0346505122785 0.275131305992 -0.0624916672801 -0.299716366006 -0.119202323723 -0.374450923608 0.339797057297 -0.145450983977 0.00676038839885 -0.162690712282 -0.426257313372 0.0136837827891 -0.206467547657 
g -0.250290592672 -0.272486196606 -0.221956039332 -0.0654495163914 0.00885622940408 0.156592125821 -0.197216806959 -0.213206202079 -0.113925204541 0.123659474916 0.0404993340638 -0.507680109909 -0.284305508562 0.285828016931 -0.0583652666071 0.10285186054 0.0912037543436 0.191829939999 -0.345798948991 -0.267863641076 
h -0.280856400653 0.0331865995582 -0.0367172545186 -0.0606517474507 0.193792862787 -0.346074254243 -0.113899629703 0.247091349797 -0.11027944325 0.116274160603 -0.18406896412 -0.184216885717 -0.276239689756 -0.0983289352804 -0.286415138562 -0.23560796266 -0.247293768824 -0.219500079279 -0.0248796340836 -0.506623684437 
i -0.116123906861 0.0447279101882 -0.366893118558 -0.259124290279 -0.00382201024771 -0.198973567203 -0.0392912663978 -0.238392399486 -0.0357914817331 -0.314678746349 -0.0988976434449 0.00752969809151 -0.392825023293 0.427326239395 -0.216121927788 -0.0805427627705 -0.187346569736 0.134022082191 -0.184181767243 -0.31231244787 
j -0.156660102004 0.0412223220888 -0.331219508139 -0.321580845204 -0.167452109223 -0.0572500629961 0.0173877884513 -0.479401780739 -0.156240704083 -0.219614725651 -0.170005942992 -0.00388197711411 0.277341853783 -0.263419340654 -0.0353874485123 -0.048991668576 -0.254559559572 -0.196877366932 -0.373735972384 0.0665741774906 
null 0.0131021   0.05123886 -0.18352376 -0.14071931  0.02367555 -0.59552221 -0.00793381  0.06743704  0.26859043  0.00481938 -0.11164712 -0.22689843 -0.06257286 -0.12279813 -0.12613931  0.23493979  0.50315134 -0.00734792 -0.05649828  0.31824545
