a 0.553416907573 0.334756935334 0.402221938241 0.606088341166 0.978082770537 0.703747060566 0.883097918309 0.665236136112 0.893445112661 0.214735898445 0.19129588926 0.777791796279 0.701647407836 0.290923628309 0.801926546972
c -0.267595742556 0.30087545501 0.235214402051 0.382220185762 -0.0835047468441 -0.218018587204 -0.387049989486 0.385865836684 -0.0509518731891 0.122698408767 -0.19606285192 0.11666691711 -0.137919460207 0.0473188710911 0.11255763744
b 0.298319040927 0.753937163324 0.576349116925 0.0148213662755 -0.523735042664 -0.340808795198 0.190535324504 -0.342394893764 -0.364052488651 0.0389995987664 0.806777663055 -0.364080005031 0.467514388544 0.515658220006 0.150901326705
e 0.334257326692 0.163274605419 0.407154292372 0.213983908313 0.219874350839 -0.0626093173795 0.29967059128 -0.21223546477 -0.178577155657 0.122994882557 -0.205926566184 0.0250269009823 -0.399210041706 -0.282717415024 -0.389222611018
d -0.355579882744 0.144699753655 0.224116769574 -0.237865000992 0.211919263765 0.447369096295 -0.0753514506607 -0.308175736834 0.0204762263201 0.261664189722 -0.239876042998 -0.157431824149 -0.149250021374 0.474210941335 0.0154944365193
g 0.0520382923005 -0.49437829541 0.421513080169 0.0981885949407 -0.0379289452635 0.149823741574 -0.16680574087 0.122792438463 -0.107764914627 -0.241604299727 0.161547444832 0.139118708529 0.0270911905285 0.25046040495 -0.22183394079
f 0.230120566302 -0.130837501287 -0.261710691913 -0.00586042516442 0.05633006367 0.0181418847319 -0.0547832540607 0.499372959848 0.240189734292 0.714177838865 0.59033379224 -0.363871305132 -0.483731374907 0.238237265504 -0.316973067796
i 0.261296379031 0.129793647042 -0.218198738967 0.20824682262 0.00452027531001 -0.132255036786 -0.384868064655 -0.429817542698 0.424268403857 -0.035965724639 -0.00669189253297 0.310449861282 0.0204308742294 0.262539342904 -0.267211957824
h 0.298430667132 0.0663103000271 -0.236836714496 -0.0668485610057 -0.51685841862 0.359944229927 0.0811141564462 0.190372986449 -0.428162153724 0.414201412747 -0.359336413868 0.408966243819 0.27021084649 0.14650097803 -0.231443069791
j 0.160151581501 -0.0583026301645 -0.060531043309 0.0686184249667 0.334820039938 0.0658903137332 -0.342953836037 -0.117109683512 -0.337074076984 0.17002400595 0.105537113652 -0.0380844718328 0.152921403669 -0.137059499995 0.158639381557
null 0.221531400718 0.122859134459 0.228790707924 -0.474127980414 -0.149489311842 0.121826112603 -0.245701711449 0.0366476671635 0.134575379925 -0.0170632955546 0.119039141612 0.272068896135 -0.278547146214 -0.222101086136 0.241654511327
