a -0.406946601238 -0.327577030825 -0.291562435314 -0.20415602005 -0.266819583436 -0.0940136731168 -0.110811320336 -0.283892151232 -0.353080496298 -0.0215097858992 -0.229760289734 -0.196100847161 -0.217278895565 0.0548026677038 -0.0859630822373 -0.0313556081428 0.0460647753832 -0.250690909619 -0.273637613731 -0.112644124179 
b 0.110803514862 0.0400500641134 -0.198604427521 -0.0168389821245 0.134943279533 -0.0764163203372 -0.160858613672 -0.315672311067 -0.302555042248 -0.340221055222 -0.387213795456 -0.308031377291 -0.482865119188 0.0136868475642 -0.185267706296 -0.216210495556 0.0738367570546 -0.042156807212 -0.111302270331 -0.103322182836 
c -0.270899882109 0.162100632159 -0.149048183294 -0.0748552284807 -0.104547719244 0.107865743599 -0.031719247867 -0.400925169504 -0.23953340313 -0.131612747393 -0.413837842017 -0.0160077203064 -0.517771543716 -0.165470240644 -0.039045858315 -0.164886175173 -0.0293413858797 -0.333283399186 -0.069292462474 -0.0327026743432 
d -0.113719403528 -0.347593697211 0.0458293744607 -0.192900082591 -0.0974032675101 -0.0931974592577 -0.313954973131 -0.000763122907379 -0.0134051670298 -0.358393701835 -0.271761406678 -0.0780290656665 -0.285996896644 -0.373635643845 -0.304751743384 -0.239148489489 -0.212012994 -0.25348075369 -0.00674622869488 -0.144619416758 
e -0.175662371348 -0.14994334266 -0.156576884486 -0.397984401299 -0.146486030607 -0.11252707486 -0.330637086834 -0.191571628438 -0.0816768891373 -0.119121265166 -0.353770158539 -0.309148346471 -0.159907709513 0.0451699225148 -0.0864032876879 -0.0750686447171 0.0111391502446 -0.474635539257 0.0455648431193 -0.271722240791 
f -0.116787472547 -0.304297038193 -0.195923405754 -0.0497573008346 0.176469364053 0.170950580388 -0.24922774344 -0.246435423304 -0.247857926015 -0.249056516262 -0.204774533731 -0.323171541753 -0.459771315942 -0.324778442963 0.00774763467108 -0.137482252723 -0.185570747137 -0.111622997428 -0.079167544378 -0.104215446275 
g -0.18549420868 0.30616293185 -0.0906708432381 -0.0391654285028 -0.000601044100867 -0.255305697552 -0.0662446360187 -0.460074158036 -0.255700112743 -0.364841493811 -0.0749314445637 -0.296912779343 -0.177896134899 3.4559700919e-05 -0.244812765102 -0.180552856093 -0.184683052909 -0.156612598157 -0.0189408593409 -0.324693004048 
h -0.34225065312 0.234083488292 -0.0779132762554 -0.192343998029 0.136436781735 0.0826547243448 -0.199348858856 -0.157925377352 -0.196373109708 -0.324606830738 -0.4559348042 -0.0487325007603 -0.240732839264 0.165193578811 -0.20528719012 -0.137016131126 0.0203404304597 -0.0167168633556 -0.398329040826 -0.187551198516 
i -0.179626858265 0.388936508392 -0.139400471287 0.124202264668 -0.0129789084276 -0.210974766673 0.0431657355678 -0.113517231081 -0.265422149015 -0.253406307995 -0.198778913053 -0.235025735777 -0.449992924747 -0.258363083504 -0.289942436682 0.041091090358 -0.294558474057 0.00372253197827 -0.192555620326 -0.117921110748 
j 0.00311977652603 0.164223346781 -0.0508191417623 0.0197357730463 0.179744724061 -0.328893449298 -0.398106743096 -0.277936219399 -0.453193079031 -0.380730652614 -0.244585226877 -0.274558475281 -0.0278822961843 -0.17575099855 -0.0593440534699 0.182161266446 -0.108798559532 -0.134507321376 0.0701880335838 -0.0711492353167 
null -0.22594761 -0.1162265   0.28880069 -0.14899737  0.31450587 -0.23998104 0.22166273 -0.33119475  0.41133803  0.02840683 -0.02508424 -0.20190279 -0.08680208 -0.20362695 -0.12849297  0.27796054  0.34568486  0.04910768 -0.08244544  0.17783727
