a -0.125292441371 -0.258565416313 -0.144235838884 -0.0359165489522 0.104012401146 0.0113025758448 -0.347537581115 -0.167049214475 -0.106141649535 -0.0555139298988 -0.360105677123 0.364585394511 -0.205444816908 0.088121848076 -0.120868029136 -0.0356566147334 0.108564015234 0.530597637368 -0.314617188824 -0.0247725606335 
b -0.342461537059 0.00673067087447 -0.141525659069 -0.0106170893622 -0.137664468605 -0.140210959248 0.128615543713 -0.149863935409 -0.210020335309 0.0504323588848 -0.419803787767 -0.248051876967 -0.531612493233 -0.0149117754429 0.0793095627827 -0.206502624978 -0.124126613695 -0.223439748793 -0.307272589608 -0.0948005167952 
c -0.120672519393 -0.122414777523 -0.214906694545 -0.139431395761 0.0355674385376 -0.357036053138 0.0754955969379 -0.236777954368 -0.268383870052 -0.38741562208 -0.250470750058 -0.26360534654 -0.0665821705159 -0.219845911768 -0.177820277561 0.2134012482 -0.345347700054 -0.135430968113 -0.219862826895 -0.210018222706 
d -0.0507538497851 0.0601546498241 -0.150999965685 -0.173275283533 0.0223923402547 -0.0351005630635 -0.385927580551 -0.431258365627 -0.221603484651 -0.357441863027 -0.108440763936 -0.43464585636 0.181056247094 0.0369236489851 -0.284692933264 -0.224631696063 -0.0776289694425 -0.19659764397 -0.00385876254934 -0.128170331172 
e -0.246287555839 -0.0649791260421 -0.156450944761 -0.486470114683 -0.323980712405 -0.0791570250554 -0.06066320923 -0.179365477075 -0.233911213159 -0.265791939968 -0.271813762615 -0.0182459562745 0.0581962581286 -0.305058548698 -0.133386698625 -0.156608976019 -0.295751339384 -0.122374415219 -0.262639632255 -0.130933055419 
f -0.0563818621146 -0.307987495123 0.0152249607891 -0.137433411107 -0.112909968243 -0.277504009345 -0.369841520532 -0.0530685961024 0.0111059142366 -0.173826593499 -0.340388935177 -0.199443270301 -0.374073007154 -0.322048497411 -0.246624945497 -0.110681545118 -0.190752539987 -0.190764527201 0.0367911579041 -0.276868686991 
g -0.165390191119 -0.287306781439 -0.42039641326 -0.123023596736 0.0694942585858 0.122543035811 -0.144365650662 -0.213463446485 -0.193442935102 -0.312244460856 -0.0780551082024 -0.353976028303 -0.246210240928 -0.232969071162 -0.164583535282 -0.253375747574 -0.343661131311 -0.101295377781 0.0591210077673 -0.0873505295183 
h -0.144777936487 -0.138075254242 -0.287321645559 -0.343224367298 -0.234946651316 0.0529688283711 -0.259687780164 -0.270294480839 0.0161863896665 -0.157230814552 -0.256959670899 -0.0774888862953 0.0136887585985 0.104690017117 -0.144060631896 -0.1706949745 -0.0311368987998 -0.544457702833 -0.323574925139 0.0309358183325 
i -0.0716505220631 -0.218430731902 -0.195433573366 -0.337221201544 0.123302534694 0.13466160914 -0.343801883552 -0.222319957242 -0.0327469955401 0.189613826751 -0.255533377995 -0.465227444277 0.0672568247399 -0.0815666375421 -0.0988990548209 -0.109932618015 0.127314355181 -0.1450145579 -0.297046631088 -0.342054550428 
j -0.230860663614 -0.218899148023 -0.0209565411891 0.0997361749381 -0.25989421394 -0.186103095289 0.213097557008 -0.320904768858 -0.22637296233 -0.347737127299 -0.081662512578 0.0360364119507 -0.353086535484 -0.0141046915661 -0.393194299247 -0.0736887376339 -0.191537820989 0.0467019544905 -0.23043407604 -0.284303554958 
k -0.206438911577 0.105256093946 -0.0333042861679 -0.104015923982 0.0518127645697 -0.0111433426 -0.200261579523 -0.166254896208 -0.252047690629 -0.466529676684 -0.521545560387 -0.101822500748 -0.37782067982 0.0638334764635 -0.233750872082 -0.125605229158 0.201704002236 -0.128283118282 -0.129945040104 -0.0948675147089 
l -0.330572518599 0.0551592452944 -0.202344410006 -0.0807305496173 0.108206127911 -0.208613300901 0.0749040658067 -0.10893181542 -0.366323557466 -0.234764280909 -0.171655697259 0.298974510658 -0.163734337216 -0.426747971654 -0.0728196814423 -0.0347237101646 -0.18289073882 -0.202912719502 -0.392273443345 -0.124188739564 
m -0.24131931643 -0.254190314794 0.419838952802 0.0794954757158 0.00599048957151 -0.0358221627095 -0.148016481187 0.102555353179 -0.135700951309 -0.301087725603 -0.168370433593 0.0358166080247 -0.28324131665 -0.23837533345 -0.197135765942 -0.408110632468 -0.212950747286 -0.128527472566 -0.272187493764 -0.209054532615 
n -0.0529600956678 0.0466601200976 -0.0297130080159 0.0275423908451 0.256147642655 0.183013401323 -0.335638162254 -0.421025648639 -0.174271666642 -0.355166308542 -0.365167445677 0.00336216005733 0.0148179811094 -0.138363880202 0.0941129229164 -0.210853603807 -0.119315788497 -0.45744460431 -0.10443409644 0.0860483022606 
o 0.0544249401458 -0.280060886395 -0.290111676008 -0.176197019622 0.0244121180434 -0.118563360611 -0.0322044763963 -0.443621649229 -0.157062850298 -0.241081972332 -0.335520013411 -0.0668437437347 -0.276799088403 -0.145762132845 0.345134184395 0.103701204931 -0.140976450227 -0.230414779948 -0.045701984833 -0.297123257519
null 0.33907689  0.26780035 -0.07061748  0.22618363 -0.36132057  0.26644755 -0.32255542  0.11000821 -0.06543224 -0.15056869  0.22107486 -0.15826984 -0.22216417 -0.18798658  0.1237706   0.24007719 -0.04295887  0.07571676 -0.41564668 -0.02459292
