a -0.213463012297 -0.179505510809 -0.342972245304 -0.312345361878 -0.0368521786528 -0.169417438767 -0.300606783552 -0.279409249929 -0.352379390987 -0.171822885145 -0.240833291395 -0.110672737522 -0.296091945735 -0.128658075058 0.0482125467945 -0.239730486748 -0.00861519872104 -0.33509718393 -0.00272896041274 -0.0905187975586 
b -0.200849788673 -0.268780756171 -0.017962745588 -0.205778617843 -0.10940050501 -0.273514559726 -0.241149172497 0.253152112598 0.0675932185926 -0.0153423105114 -0.389705502046 -0.252868438977 -0.258621694608 -0.375158364154 -0.146251481375 0.00399642943591 0.0225103883293 -0.276564051155 -0.0661766234462 -0.323582953883 
c -0.0895815221951 -0.250395552293 -0.0456356035691 -0.302485352559 -0.115626422328 -9.4903383053e-05 -0.028978625904 -0.155516861922 -0.181902756233 -0.320546285563 -0.189569246023 -0.153035835318 -0.28046183204 -0.245574600124 -0.433074364241 -0.264364555164 -0.277063648682 0.0132540909389 -0.265705015035 -0.241165192652 
d 0.0730881124116 -0.101058689532 0.0596943620367 -0.0663950618245 0.372962276051 0.0632078948782 0.0274529812083 -0.438107968433 -0.132828369652 -0.362215149109 -0.368003044283 -0.144225678652 -0.0210633489144 -0.00826381394494 0.226735056557 -0.220347973997 -0.19367776099 -0.274274838727 0.251416477389 -0.24329557601 
e -0.30853271134 -0.306698419645 0.00524397329504 0.0964417241067 -0.284969739618 -0.0487541803433 -0.199485282197 -0.331909829718 -0.0306843870088 -0.238498323168 -0.301922796776 -0.0223347235384 -0.379569091451 -0.038059532513 -0.149353362938 0.077453168809 -0.331263383306 -0.200317581953 -0.196794449007 0.236591306252 
f -0.243867443064 -0.168077575135 -0.0452174952575 -0.235588805238 0.0829961037469 -0.0746716150042 -0.1516136995 -0.133086532592 -0.166379393017 0.194034288809 -0.266792901658 -0.163568901611 -0.310351272986 -0.288419250931 0.335832495667 0.193847488776 -0.421497292613 -0.163271719741 -0.27344977556 -0.17131261207 
g -0.242162270743 -0.352297534496 0.181824249708 -0.158838336934 0.391579056219 -0.15494610025 0.170206006732 0.123023077494 -0.255050084482 -0.0368543028809 -0.294423483037 0.140454618177 -0.352648336944 -0.362378928653 -0.00364533857976 -0.00559053815322 -0.041307823481 -0.20779198329 -0.153542890458 -0.201252023369 
h -0.0501696352767 -0.00858325680348 -0.0516955680248 0.196394898573 -0.0745604292857 -0.0827749573099 -0.259684338155 -0.173046289054 -0.0633514880525 -0.397719203388 -0.258592744699 -0.457297225217 -0.420815022844 0.0638593662714 -0.145193420218 -0.339140851357 -0.0989719061181 -0.216985798307 -0.133886810097 -0.126981045175 
i 0.240946997641 0.045390988464 -0.0634246550183 0.0289713374877 0.0829561114253 0.107529550486 -0.251255112563 -0.246502310582 -0.396454250799 -0.0343640727772 -0.364291548605 -0.341918096487 -0.295088814672 -0.0884007331992 0.447870297844 0.000450914304935 0.185456132014 -0.0524703804098 -0.228210595245 0.00220399949778 
j 0.0547470232159 -0.318072645558 -0.0810942164044 0.39664947716 -0.106927891782 -0.320654578688 -0.0375714302694 -0.144028836458 -0.19926068934 -0.0792868632132 -0.315619809084 -0.184586702715 -0.419191187796 0.0342113311816 -0.200644892379 0.0437085418797 -0.354298601785 0.0160079854086 0.256794765929 -0.0710598201745 
null 0.12760573 -0.25279202 -0.19868212 -0.16226399  0.19204758 -0.20996317 -0.06013997  0.25365154  0.0267136  -0.60101592  0.26667146 -0.1601053 0.04162324  0.12548647  0.17347149  0.4052377  -0.05794472  0.09827216 -0.08917763  0.11682446
