a 0.585764855912 0.488795827194 0.336197368068 0.880815663652 0.0382294625817 0.556464105971 0.42428738518 0.447337923099 0.14781203488 0.499734825975 0.362204657696 0.160703612123 0.0232580221786 0.508530600244 0.11094032897 0.598146080778
c -0.148312558495 0.431486667584 0.220782316174 -0.450879952183 0.593828717895 -0.00856191475467 -0.311624916347 0.560089571578 0.169198017824 -0.263489971055 -0.276693527658 0.358957393736 0.023710527611 -0.04771018833 -0.227218915649 0.435901663208
b -0.0411173675991 -0.232614616306 -0.329900160338 -0.0592468744528 0.223174646939 -0.191129411549 0.397644634233 -0.328558958576 0.497249556945 -0.229471112275 0.264443154733 0.813977085388 0.479058094805 0.201431888004 0.350622960423 0.0653328393627
e 0.174177071501 -0.187929173322 0.711055983554 -0.304731235231 0.381953474437 0.110128013697 0.24595731229 0.234935597708 0.255390137808 0.0794165904154 0.185833834922 -0.37770382717 0.341550638636 -0.205638374632 0.44368293055 -0.506211569201
d 0.406678182142 0.0700477994531 -0.173998222978 0.0320282078286 0.460647631091 0.125346765677 -0.307945802865 -0.342023143902 -0.122575357536 0.163047247629 -0.282360241646 0.0621904226036 -0.176883069334 0.0363318212019 0.330847507752 -0.113725456242
g 0.190296872381 -0.0434088068876 -0.19821373819 -0.247420364847 -0.12636611348 0.132208173513 -0.323942633921 0.110866208555 0.200385855983 0.208568701959 0.280330849019 0.00640180623907 0.0933956146044 0.100527225929 -0.15183121654 -0.0993606237348
f -0.298086101223 0.42430880887 0.00833395350481 0.00507987558868 -0.0116577840285 -0.35865390907 -0.0491362996127 -0.0613573538836 -0.0521162532324 0.619380234539 0.202900538167 0.169744472799 0.0284817521793 -0.388450454614 0.187506181354 -0.0305397592056
i -0.276691861931 0.218079784328 0.144916790903 0.0570360466196 -0.00249460509508 -0.0628538679524 -0.2202408504 -0.262162682802 0.126350333005 0.0230254484103 -0.108978821594 -0.248807864901 0.315364389639 0.470059408723 0.0236055904077 0.00433688443789
h 0.0707759535065 0.363962101036 -0.152921592058 -0.503797913395 -0.212064981727 0.183698645653 0.28542042579 -0.0747863278917 -0.230604926562 -0.111795931662 0.0681546706562 -0.128523540011 -0.0206819851201 0.10917144409 0.299918228514 0.153235722562
j 0.0246145787049 0.164434137053 0.0632123282824 0.0750669333833 0.21277811133 0.099157355851 -0.0573499632473 -0.334368621022 -0.01120931248 -0.255677351986 0.436911170515 -0.122741471605 -0.0178062450349 -0.215839668781 -0.209652767081 0.0882181661843
null -0.211431435726 -0.0249084880031 0.319631946069 -0.136923642731 -0.122332220134 0.355905266138 0.0210541242716 -0.239494169017 0.133855499977 0.111660625237 -0.0404457112481 0.299718608701 -0.340025937705 0.069224763849 -0.0742824377136 -0.123977579022
