a 0.26595 1.2892 1.447 1.3614 0.83989 0.89757 2.6257 2.8224 3.7977 5.0676 3.0943 1.171 2.9064 0.7428 1.7079 2.6508 1.8071 0.59784 1.9919 0.33439 
b 0.82314 2.4554 0.74636 0.59672 2.342 1.2811 2.2136 1.8862 0.75947 3.4286 1.9343 2.5882 4.6989 0.30522 3.4145 3.3236 1.0643 1.045 0.64756 1.8202 
c 3.7548 4.1522 2.8427 2.5235 1.2577 2.9519 1.2906 0.020286 4.8645 5.9271 2.6104 4.9443 5.5462 5.5315 3.3055 2.1848 3.7564 3.6481 0.049575 5.2404 
d 0.75439 1.0646 1.5078 0.51385 1.3709 1.857 0.22798 1.9299 2.9006 2.2994 2.9816 1.4069 3.4024 0.43042 0.23452 0.86823 1.4669 0.37735 1.4102 1.7186 
e 0.71815 2.3536 3.2659 1.9601 1.314 3.9164 2.8587 3.0535 4.5782 2.4153 4.1459 2.3038 2.5886 2.9716 3.0804 0.82246 1.8173 0.39212 1.2389 2.4331 
f 1.4634 1.9629 2.774 2.5121 1.2271 0.020971 2.6198 2.7976 1.5699 0.23606 2.0816 2.1222 0.57897 0.024297 1.2925 1.057 0.44482 3.774 2.6241 1.4042 
g 2.0796 3.9811 1.4131 0.604 2.1403 0.50395 2.0781 1.8902 2.6656 1.5508 2.6961 2.7219 3.4455 2.757 1.5795 0.51528 2.9186 3.7632 1.2447 0.3644 
h 0.7046 3.5208 2.2063 0.093279 0.85558 2.0459 2.8742 1.8522 4.2745 4.7809 2.8425 2.2351 1.8312 3.7065 2.2781 1.7944 2.5649 0.84372 2.1301 2.1493 
i 0.65022 0.75621 0.38143 0.16014 0.13445 0.075362 1.413 2.6478 1.6554 2.9228 3.602 2.8695 4.3218 0.13426 1.033 1.2588 0.7557 2.548 0.052711 0.33443 
j 0.012255 2.1917 2.4948 1.2866 0.52344 1.0673 0.88419 3.5974 0.87729 2.5756 2.7716 0.25434 2.8645 1.5654 1.6225 0.6377 0.24222 0.91331 1.3281 2.3004 
null -0.76900042 -0.23708867 0.22806202 0.05955197 0.06348317 -0.09454419 -0.11376491 -0.17246976 -0.00095166 -0.11234781 -0.1386789 0.16529339 0.17397185 0.14579918 0.0818791 0.03148844 0.24345111 0.18430383 0.17149531 -0.01298532
